{"ip":0,"fr":60,"v":"5.1.20","assets":[],"layers":[{"ty":4,"nm":"Oval","ip":0,"st":0,"ind":4,"hix":2,"ks":{"o":{"a":0,"k":100},"or":{"a":0,"k":[0,0,0]},"a":{"a":0,"k":[32,2.5,0]},"p":{"s":true,"x":{"a":0,"k":275},"y":{"a":0,"k":307.5}},"rx":{"a":0,"k":0},"ry":{"a":0,"k":0},"rz":{"a":0,"k":0},"s":{"a":0,"k":[100,100,100]}},"shapes":[{"ty":"gr","nm":"Oval shape group","it":[{"ty":"el","p":{"a":0,"k":[32,2]},"s":{"a":1,"k":[{"t":0,"s":[64,5],"e":[40,5],"i":{"x":[0.55,1],"y":[0.95,1]},"o":{"x":[0.445,0],"y":[0.05,0]}},{"t":45,"s":[40,5],"e":[64,5],"i":{"x":[0.55,1],"y":[0.95,1]},"o":{"x":[0.445,0],"y":[0.05,0]}},{"t":74}]}},{"ty":"st","o":{"a":0,"k":0},"w":{"a":0,"k":0},"c":{"a":0,"k":[0,0,0,0]},"lc":3,"lj":1,"ml":1},{"ty":"fl","o":{"a":0,"k":100},"r":2,"c":{"a":0,"k":[0.8470588235294118,0.8470588235294118,0.8470588235294118,1]}},{"ty":"tr","o":{"a":0,"k":100},"a":{"a":0,"k":[0,0]},"s":{"a":0,"k":[100,100]},"p":{"a":0,"k":[0,0]},"r":{"a":0,"k":0}}]}],"op":74},{"ty":4,"nm":"doodle-77","ip":0,"st":0,"ind":3,"hix":1,"ks":{"o":{"a":0,"k":100},"or":{"a":0,"k":[0,0,0]},"a":{"a":0,"k":[57,68.5,0]},"p":{"s":true,"x":{"a":1,"k":[{"t":0,"s":[262],"e":[262],"i":{"x":[0.55],"y":[0.95]},"o":{"x":[0.445],"y":[0.05]}},{"t":45,"s":[262],"e":[262],"i":{"x":[0.55],"y":[0.95]},"o":{"x":[0.445],"y":[0.05]}},{"t":74}]},"y":{"a":1,"k":[{"t":0,"s":[208.5],"e":[222.5],"i":{"x":[0.55],"y":[0.95]},"o":{"x":[0.445],"y":[0.05]}},{"t":45,"s":[222.5],"e":[208],"i":{"x":[0.55],"y":[0.95]},"o":{"x":[0.445],"y":[0.05]}},{"t":74}]}},"rx":{"a":0,"k":0},"ry":{"a":0,"k":0},"rz":{"a":0,"k":0},"s":{"a":0,"k":[100,100,100]}},"shapes":[{"ty":"gr","nm":"doodle-77 shape group","it":[{"ty":"sh","ks":{"a":0,"k":{"c":true,"v":[[44.0517185,112.740701],[48.9866047,117.136011],[54.4571322,120.732603],[54.6411133,120.411226],[49.4174466,116.394007],[44.2613172,111.821467],[35.6863993,102.206136],[35.4791294,102.416449]],"i":[[-3.0694572999999963,-3.2515840000000082],[-1.758158200000004,-1.3288340000000005],[-1.9772148999999999,-0.7963539999999938],[0.11877259999999978,0.1276060000000001],[1.7140520000000024,1.3067779999999942],[1.5902869999999965,1.6671419999999983],[3.3139892000000017,2.793148000000002],[-0.13973250000000093,-0.13469499999999357]],"o":[[1.526471800000003,1.596658000000005],[1.6861054999999965,1.2973250000000007],[0.18631000000000597,0.07561800000000574],[-1.4788356000000036,-1.5950720000000018],[-1.8411410000000004,-1.3759040000000056],[-2.941369200000004,-3.1523349999999937],[-0.14206139999999579,-0.11815400000000409],[3.239465200000005,3.1074370000000044]]}}},{"ty":"st","o":{"a":0,"k":0},"w":{"a":0,"k":0},"c":{"a":0,"k":[0,0,0,0]},"lc":3,"lj":1,"ml":1},{"ty":"fl","o":{"a":0,"k":100},"r":1,"c":{"a":0,"k":[0.13725490196078433,0.12156862745098039,0.12549019607843137,1]}},{"ty":"tr","o":{"a":0,"k":100},"a":{"a":0,"k":[0,0]},"s":{"a":0,"k":[100,100]},"p":{"a":0,"k":[0,0]},"r":{"a":0,"k":0}}]},{"ty":"gr","nm":"doodle-77 shape group","it":[{"ty":"sh","ks":{"a":0,"k":{"c":true,"v":[[105.776422,64.3575135],[105.566258,71.7240754],[105.984621,71.7924879],[106.02194,64.3575135]],"i":[[0.015713000000005195,-0.1588148000000018],[-0.09216400000001101,-2.458537100000001],[-0.04910300000000234,0.3054130000000015],[0.41050599999999804,2.3504586000000103]],"o":[[-0.23203699999999117,2.4442247000000066],[0,0.2834232999999955],[0.36925999999999704,-2.350458500000002],[-0.02357000000000653,-0.14659819999999968]]}}},{"ty":"st","o":{"a":0,"k":0},"w":{"a":0,"k":0},"c":{"a":0,"k":[0,0,0,0]},"lc":3,"lj":1,"ml":1},{"ty":"fl","o":{"a":0,"k":100},"r":1,"c":{"a":0,"k":[0.13725490196078433,0.12156862745098039,0.12549019607843137,1]}},{"ty":"tr","o":{"a":0,"k":100},"a":{"a":0,"k":[0,0]},"s":{"a":0,"k":[100,100]},"p":{"a":0,"k":[0,0]},"r":{"a":0,"k":0}}]},{"ty":"gr","nm":"doodle-77 shape group","it":[{"ty":"sh","ks":{"a":0,"k":{"c":true,"v":[[105.075871,47.2548968],[106.397508,60.186739],[106.750394,60.2366413],[101.070503,34.8767334],[100.949128,34.8434652],[100.917661,34.9717855]],"i":[[-0.8923290000000037,-4.201304099999994],[-0.26073100000000693,-4.3486349],[-0.03371500000000083,0.22337249999999642],[4.039084000000003,7.537633800000002],[0.04220700000000477,-0.026247999999995386],[-0.02482700000000193,-0.0446215000000052]],"o":[[0.8990729999999871,4.277345799999999],[0.013486000000000331,0.19723309999999827],[1.3171410000000066,-8.792321900000005],[-0.02482700000000193,-0.04462149999999809],[-0.04220600000000729,0.026247900000001323],[1.9487400000000008,3.7925799]]}}},{"ty":"st","o":{"a":0,"k":0},"w":{"a":0,"k":0},"c":{"a":0,"k":[0,0,0,0]},"lc":3,"lj":1,"ml":1},{"ty":"fl","o":{"a":0,"k":100},"r":1,"c":{"a":0,"k":[0.13725490196078433,0.12156862745098039,0.12549019607843137,1]}},{"ty":"tr","o":{"a":0,"k":100},"a":{"a":0,"k":[0,0]},"s":{"a":0,"k":[100,100]},"p":{"a":0,"k":[0,0]},"r":{"a":0,"k":0}}]},{"ty":"gr","nm":"doodle-77 shape group","it":[{"ty":"sh","ks":{"a":0,"k":{"c":true,"v":[[80.8331314,57.2078474],[90.0385011,44.0357794],[85.7171247,37.4016379],[84.1872856,36.8665886],[84.1729209,36.8665886],[74.7927809,38.0399423],[70.9143156,45.3147349]],"i":[[-6.775343599999999,0.8424680000000038],[0.7134460999999988,5.4654813],[2.5449435000000022,1.262528500000002],[0.5311626000000018,0.11358700000000255],[0,0],[2.7460491000000076,-1.8468585999999974],[0.27292900000000486,-2.933384099999998]],"o":[[5.9709212000000065,-0.7462529000000018],[-0.3495407000000057,-2.686979800000003],[-0.4845459999999946,-0.24164919999999768],[0,0],[-3.141077999999993,-0.8471613000000033],[-2.5473377,1.722483099999998],[-0.5243109999999973,5.693111900000005]]}}},{"ty":"sh","ks":{"a":0,"k":{"c":true,"v":[[75.1183804,39.8422135],[78.9848751,38.0516758],[78.0272294,38.9223042],[78.9729045,55.4853643],[72.5471016,47.1827139]],"i":[[-2.140338200000002,1.8327784000000023],[-1.4270151999999996,0.2532692999999995],[0.2904620000000051,-0.31918939999999907],[-4.5919112999999925,-3.8157460999999984],[0.16040569999999832,3.6092358000000004]],"o":[[1.1058200999999883,-0.9196631000000011],[-0.34653709999999194,0.25992829999999856],[-3.9024063999999896,4.324981600000001],[-3.662994900000001,-0.49984870000000114],[-0.1101293000000112,-2.6682062]]}}},{"ty":"st","o":{"a":0,"k":0},"w":{"a":0,"k":0},"c":{"a":0,"k":[0,0,0,0]},"lc":3,"lj":1,"ml":1},{"ty":"fl","o":{"a":0,"k":100},"r":1,"c":{"a":0,"k":[0.13725490196078433,0.12156862745098039,0.12549019607843137,1]}},{"ty":"tr","o":{"a":0,"k":100},"a":{"a":0,"k":[0,0]},"s":{"a":0,"k":[100,100]},"p":{"a":0,"k":[0,0]},"r":{"a":0,"k":0}}]},{"ty":"gr","nm":"doodle-77 shape group","it":[{"ty":"sh","ks":{"a":0,"k":{"c":true,"v":[[41.417223,54.3911387],[46.1644064,55.6970453],[55.1676853,48.3603088],[51.0214999,36.1246827],[39.752201,41.6359334]],"i":[[-3.7813772000000014,-2.7231516000000013],[-1.6895199999999946,0.1482083000000003],[-0.7436475000000016,4.407144899999999],[4.4922854,2.089914499999999],[1.6392983,-3.722877699999998]],"o":[[1.3712158000000017,0.9901886000000033],[4.5741333,0.3943234999999987],[0.7296162999999964,-4.240137300000001],[-4.111107600000004,-1.911309100000004],[-1.6720375000000018,3.7947837999999976]]}}},{"ty":"sh","ks":{"a":0,"k":{"c":true,"v":[[40.7156688,44.4634649],[43.8586316,39.3163835],[43.0120895,45.3472134],[45.6148556,53.987537],[41.5528568,52.1574121],[40.7226843,44.4565062]],"i":[[0,0],[-1.7047767000000036,1.2687937999999974],[-0.03040070000000128,-0.9742110000000039],[-1.7305003999999968,-2.437847000000005],[1.0055610000000001,1.229361499999996],[-0.4910878999999966,2.3891364999999993]],"o":[[0.4419790999999975,-2.1386250999999987],[-0.745986000000002,2.022647499999998],[0.08418650000000127,2.8136141000000023],[-1.541080700000002,-0.027834600000005594],[-1.6439754000000022,-2.0180085000000005],[0,0]]}}},{"ty":"st","o":{"a":0,"k":0},"w":{"a":0,"k":0},"c":{"a":0,"k":[0,0,0,0]},"lc":3,"lj":1,"ml":1},{"ty":"fl","o":{"a":0,"k":100},"r":1,"c":{"a":0,"k":[0.13725490196078433,0.12156862745098039,0.12549019607843137,1]}},{"ty":"tr","o":{"a":0,"k":100},"a":{"a":0,"k":[0,0]},"s":{"a":0,"k":[100,100]},"p":{"a":0,"k":[0,0]},"r":{"a":0,"k":0}}]},{"ty":"gr","nm":"doodle-77 shape group","it":[{"ty":"sh","ks":{"a":0,"k":{"c":true,"v":[[33.9393095,58.8230758],[35.3185201,57.7548437],[35.2037937,56.20695],[33.4579575,55.9752294],[32.9391948,56.2463425],[32.4204321,57.8544836],[33.9393095,58.8230758]],"i":[[0,0],[-0.17454060000000027,0.5887253000000001],[0.29180410000000023,0.4263660000000016],[0.5511855000000025,-0.36611860000000007],[0.15454390000000018,-0.11783699999999442],[-0.188190800000001,-0.5841986000000006],[-0.6833043999999973,0.031808800000000303]],"o":[[0.6547221000000008,-0.053558799999997575],[0.1596193000000028,-0.46344120000000544],[-0.3990482999999969,-0.5839359000000002],[-0.18864169999999802,0.06151689999999377],[-0.5030100000000033,0.39172669999999954],[0.21371560000000045,0.6038409000000016],[0,0]]}}},{"ty":"st","o":{"a":0,"k":0},"w":{"a":0,"k":0},"c":{"a":0,"k":[0,0,0,0]},"lc":3,"lj":1,"ml":1},{"ty":"fl","o":{"a":0,"k":100},"r":1,"c":{"a":0,"k":[0.13725490196078433,0.12156862745098039,0.12549019607843137,1]}},{"ty":"tr","o":{"a":0,"k":100},"a":{"a":0,"k":[0,0]},"s":{"a":0,"k":[100,100]},"p":{"a":0,"k":[0,0]},"r":{"a":0,"k":0}}]},{"ty":"gr","nm":"doodle-77 shape group","it":[{"ty":"sh","ks":{"a":0,"k":{"c":true,"v":[[94.2719244,62.5907788],[95.0267212,59.5575404],[93.6896526,59.0467807],[91.6648803,60.7983011]],"i":[[-1.2268442999999962,0.42884540000000015],[0.9225294000000019,0.9420144999999991],[0.49829149999999345,-0.03291600000000017],[-0.06469689999998707,-0.9974270000000018]],"o":[[1.2124671999999919,-0.42161779999999993],[-0.35084650000000295,-0.3572862999999984],[-0.9872263000000032,-0.8022782999999976],[0.07907390000001158,1.2672624]]}}},{"ty":"st","o":{"a":0,"k":0},"w":{"a":0,"k":0},"c":{"a":0,"k":[0,0,0,0]},"lc":3,"lj":1,"ml":1},{"ty":"fl","o":{"a":0,"k":100},"r":1,"c":{"a":0,"k":[0.13725490196078433,0.12156862745098039,0.12549019607843137,1]}},{"ty":"tr","o":{"a":0,"k":100},"a":{"a":0,"k":[0,0]},"s":{"a":0,"k":[100,100]},"p":{"a":0,"k":[0,0]},"r":{"a":0,"k":0}}]},{"ty":"gr","nm":"doodle-77 shape group","it":[{"ty":"sh","ks":{"a":0,"k":{"c":true,"v":[[43.616225,66.7261996],[42.3699134,67.3106758],[46.7472028,78.3035994],[56.1354596,85.1360068],[67.9952948,86.1236523],[77.7576789,80.5937919],[83.9401325,70.3976643],[83.4584436,69.3599209],[82.7569549,69.06649],[62.9749742,68.8637125],[53.448758,67.763943]],"i":[[3.2478926,-0.03101300000000151],[-0.07950199999999796,-0.6966001999999918],[-2.3858622999999994,-3.2051407999999952],[-3.591621999999994,-1.4743113000000108],[-3.956396099999992,1.0687564999999921],[-2.775556800000004,2.5215972999999963],[-0.689797200000001,3.950581999999997],[0.36940859999999986,0.19763449999999239],[0.2655646000000047,-0.017128900000003],[6.626729700000006,0.6799008999999927],[3.1730671000000044,0.3840844000000061]],"o":[[-0.4466145000000026,-0.3530712999999963],[0.4810294999999982,3.9946398000000016],[2.366355100000007,3.175256400000009],[3.7669942000000063,1.5458799000000027],[3.605651899999998,-0.9757174000000077],[2.8784418999999986,-2.624178900000004],[0.0842078000000015,-0.41679790000000594],[-0.17734439999999552,-0.20239660000000015],[-6.6337446,0.11212399999999434],[-3.1777437000000006,-0.33160070000000985],[-3.2198330999999953,-0.38169870000000117]]}}},{"ty":"st","o":{"a":0,"k":0},"w":{"a":0,"k":0},"c":{"a":0,"k":[0,0,0,0]},"lc":3,"lj":1,"ml":1},{"ty":"fl","o":{"a":0,"k":100},"r":1,"c":{"a":0,"k":[0.13725490196078433,0.12156862745098039,0.12549019607843137,1]}},{"ty":"tr","o":{"a":0,"k":100},"a":{"a":0,"k":[0,0]},"s":{"a":0,"k":[100,100]},"p":{"a":0,"k":[0,0]},"r":{"a":0,"k":0}}]},{"ty":"gr","nm":"doodle-77 shape group","it":[{"ty":"sh","ks":{"a":0,"k":{"c":true,"v":[[3.06956422,54.0554183],[6.69935843,54.5800105],[9.22942818,57.7816692],[10.2330147,65.937548],[14.352878,73.3735828],[21.0356387,77.6808842],[21.6546734,77.4738702],[22.137708,85.1427957],[24.6419846,95.909873],[29.6997793,105.884181],[30.0210208,106.119424],[33.3670908,110.447897],[39.7848858,117.269948],[54.6510973,129.267346],[73.5035169,135.854154],[93.3923506,136.496367],[113.557874,129.248527],[113.27415,127.467737],[110.835528,126.762007],[107.083803,124.543665],[102.938147,117.211137],[102.058836,101.628633],[106.476493,87.5140463],[111.869598,69.3720974],[112.807529,50.7149661],[107.029872,34.9089814],[101.381181,27.7505334],[94.616351,20.9567123],[88.4072456,7.65841916],[83.2087612,4.68259378],[82.132485,7.57843651],[70.1316538,0.0483044597],[69.0014465,0.911646684],[70.1574469,4.0568471],[53.0566141,4.66377434],[52.4761725,5.19314756],[52.5219932,5.97878334],[58.2691674,9.60858457],[63.9905484,12.2456599],[56.9302704,18.4137343],[56.4355116,18.3713905],[29.5286068,44.4363274],[22.7286047,65.7493535],[17.1619823,50.9502092],[12.7068086,46.245347],[4.9407372,46.1347827],[0.11508055,49.8822055]],"i":[[-1.84537988,-0.5410590999999982],[-1.1911727700000005,-0.2893491000000026],[-0.3259311399999998,-1.533785100000003],[-0.5346208600000004,-2.6911812000000097],[-2.0306213,-2.1595317999999963],[-2.8395870999999993,-0.1293836999999911],[-0.1691009000000001,0.1516250000000099],[-0.32815069999999835,-2.5429461999999887],[-1.2040658000000022,-3.492366099999998],[-2.328414500000001,-2.8817279999999954],[-0.12846569999999957,-0.04375499999999022],[-1.1883746999999971,-1.384492999999992],[-2.261731900000001,-2.154837999999998],[-5.357932700000006,-3.3475090000000023],[-6.520967499999998,-1.1926829999999882],[-6.614760700000005,0.8892189999999971],[-6.016829000000001,3.954437000000013],[0.6964139999999901,0.17172700000000418],[0.9285520000000105,0.2187760000000054],[1.0434489999999954,1.025660000000002],[0.7972409999999996,2.7029430000000048],[-0.17351700000000392,5.255331000000012],[-1.772691000000009,4.603707700000001],[-1.109104000000002,6.273933799999995],[0.6542069999999995,6.189246300000001],[3.1783939999999973,4.718918599999995],[2.059531000000007,2.2403476000000033],[2.4409662000000054,2.020738399999999],[3.5805528000000066,3.538056439999999],[1.6953108999999955,-0.5481164500000002],[-0.1477241000000049,-1.3197138700000002],[4.476445600000005,1.6501193903],[0.03986209999999346,-0.529297004],[-0.5463450000000023,-0.9739064799999997],[5.304001599999999,-1.75491363],[0.10382309999999961,-0.2553740900000001],[-0.13280139999999818,-0.2414837899999993],[-1.8711729999999989,-0.8609897899999996],[0,0],[1.273241800000001,-2.9475962000000013],[0.16424500000000108,-0.04991640000000075],[5.3438637,-11.6515913],[1.2920003999999992,-7.367814299999999],[1.2333797000000004,5.358838199999994],[2.612138699999999,0.6139845000000008],[2.5666381099999995,-0.5223204999999993],[0.5768277639999999,-2.100721]],"o":[[1.18413829,0.3481597999999977],[1.6413798199999992,0.4046181000000004],[0.5697932800000007,2.684123999999997],[0.5815173999999992,2.945243699999992],[1.8266212999999993,1.9431081000000034],[0.22596169999999915,0.019510400000001482],[-0.006474700000001832,2.564159800000013],[0.4609495999999993,3.6663275000000084],[1.2146210999999987,3.4792455999999987],[0.08069550000000092,0.10941200000000606],[1.0408720000000002,1.4992590000000092],[2.0135933999999978,2.3897890000000075],[4.553656600000004,4.373169000000004],[5.662760399999996,3.5474669999999833],[6.565519200000011,1.197386999999992],[7.111864400000002,-0.9574389999999937],[0.7902069999999952,-0.5175350000000094],[-0.6073110000000099,-0.7057300000000026],[-1.4373789999999929,-0.32934000000000196],[-2.021242000000001,-1.9901570000000106],[-1.5264839999999964,-5.175348999999997],[0.9379310000000061,-4.841303199999999],[2.281516999999994,-5.9234215999999975],[1.0692410000000052,-6.116320899999998],[-0.6160679999999985,-5.661624699999997],[-1.7009120000000024,-2.525170100000004],[-2.1220699999999937,-2.352431099999997],[-0.7034484999999933,-4.9259907],[-1.069241699999992,-1.0233075400000002],[-1.0481381999999968,0.33875008999999956],[-3.437959500000005,-3.3159129100000007],[-0.5838622999999927,-0.2164236637],[-0.08206900000000417,1.131519376],[-5.006208399999991,-2.6888287799999997],[-0.2632642999999959,0.07941623000000053],[-0.10382309999999961,0.2553740900000001],[0.9379313000000025,2.0489675100000007],[0,0],[-3.1162768000000014,1.0703560999999997],[-0.15344400000000036,-0.07710570000000061],[-12.800417699999997,3.4910077999999984],[-3.0904837,6.7420677],[-5.069518800000001,-3.418082499999997],[-0.5932414999999978,-2.5759120000000024],[-2.550831200000001,-0.5951771000000008],[-1.9766902600000003,0.43519979999999947],[-0.576827763,2.100721]]}}},{"ty":"sh","ks":{"a":0,"k":{"c":true,"v":[[24.3606052,66.9937895],[29.9389518,47.8779342],[40.0686101,30.978069],[56.4355116,19.8722416],[56.1353736,22.2387873],[57.0404773,23.1491782],[60.8953751,21.478952],[65.4560661,19.5734828],[75.332483,18.9900799],[75.5388279,17.4468851],[66.0915146,17.5833261],[61.7676512,18.9477362],[59.7839265,20.0439691],[58.0206156,21.173136],[66.9309631,13.3795317],[67.1466873,11.7328299],[60.1989611,8.52881868],[56.8505463,6.98797629],[54.8199249,5.97172604],[72.5585511,8.62762079],[74.0967584,7.72663967],[72.3873786,4.45911283],[71.1985507,2.39132586],[83.2275199,11.3399739],[84.7071065,10.4766317],[83.9848994,7.18322808],[83.9848994,6.66569323],[84.085727,6.60688245],[85.0494515,7.20675239],[89.0637975,11.1941232],[93.2985574,21.6930233],[93.7464197,22.1635095],[99.191111,27.9669571],[104.53732,34.5137729],[110.851942,50.2138983],[104.790561,86.5424922],[100.084491,104.453903],[99.9578698,109.339902],[101.207663,117.952153],[105.142285,125.244689],[108.476631,127.902936],[110.13677,128.547502],[110.762839,128.679239],[75.6232417,134.268615],[56.909167,128.387537],[42.3712315,117.112335],[35.3250224,109.852732],[29.9319173,103.049501],[26.6890197,96.0886578],[24.29495,87.0882563],[24.3559156,66.9984944]],"i":[[0,0],[-2.5488284000000014,6.1351404000000045],[-4.366070300000004,4.944810199999996],[-6.370898499999996,2.0724918000000017],[0.003495799999996052,-0.7981748999999994],[-0.49657909999999816,-0.010040800000002292],[-1.2427589999999995,0.7927692999999998],[-1.6131850000000014,0.3827809000000002],[-3.31089759999999,-0.03763890000000103],[0.8933794999999947,0.13173610000000124],[3.1180161000000055,-0.5885487000000005],[1.3810180999999986,-0.6284696000000025],[0.6329758999999981,-0.41468200000000266],[0.6331035999999983,-0.254062600000001],[-4.2511737000000025,0.6539758000000013],[0.6776554000000061,0.30816849999999896],[0,0],[0,0],[0.6002761000000021,0.4469619199999997],[-3.9275874000000073,-6.04810043],[0.5346209000000073,1.02095511],[0,0],[0.372827700000002,0.7574828300000003],[-3.26300830000001,-3.8791033300000004],[0.3071725000000072,0.8186459999999993],[0.10948359999999013,1.1226843299999993],[0,0],[-0.22744830000000604,-0.17643233999999985],[-0.2602760000000046,-0.16937504000000025],[-1.0944277000000113,-1.5552349099999994],[-0.8722761000000077,-3.7050790000000013],[-0.22520260000000292,-0.060527700000001516],[-1.7820695000000057,-1.9548702999999996],[-1.6462449999999933,-2.2904417000000024],[-0.6870349999999945,-5.765808699999994],[4.4340700000000055,-11.470454199999992],[0.10786199999999724,-6.259819399999998],[-0.04049159999999574,-1.629767000000001],[-0.8076059999999927,-2.7998169999999902],[-1.8145820000000015,-2.1217539999999957],[-1.267315999999994,-0.6691720000000032],[-0.5745979999999946,-0.15518300000002228],[-0.21077400000000068,-0.033273000000008324],[12.071176100000002,1.914878999999985],[5.648691300000003,3.239297999999991],[4.455173700000003,4.123812000000001],[2.2126644000000013,2.5491469999999907],[1.836000600000002,2.2253999999999934],[0.8980692999999995,2.4300613000000055],[0.5265224000000011,3.066277400000004],[-1.0833106999999984,6.629150899999999]],"o":[[1.0739314000000029,-6.563282800000003],[2.525380099999996,-6.071624799999995],[4.422346099999999,-5.008325900000003],[-0.1958477999999957,0.7736213000000021],[0.008723400000000936,0.49821360000000325],[1.5593108999999998,0.10350689999999929],[1.4071499999999943,-0.8791232999999998],[3.249932099999995,-0.813941100000001],[0.8558622999999983,0],[-3.1336107999999996,-0.4982608000000006],[-1.4909610999999927,0.2777934000000002],[-0.6876451000000046,0.315110899999997],[-0.5815174999999968,0.38344619999999807],[0.5979311999999979,-4.422570499999999],[0.745655400000004,-0.11526920000000018],[0,0],[0,0],[-0.6518622999999977,-0.3011111799999995],[5.918346700000001,-1.8466584299999997],[0.6260690999999952,0.9621443299999992],[0,0],[-0.28372420000000886,-0.5387067299999995],[4.647610299999997,2.0058017000000006],[0.5604139000000004,0.6610330999999992],[-0.37027849999999773,-1.0651234499999997],[0,0],[-0.1594483000000082,-0.21407124],[0.2813793999999916,0.014114590000000149],[1.5610527999999988,1.0824016200000006],[2.2322765999999916,3.1310857999999993],[0.0499062999999893,0.2284784000000002],[1.7046900999999934,2.0230907999999985],[1.9145059999999887,2.0699533000000017],[3.329656,4.704862300000002],[1.4795870000000093,12.3973121],[-2.2369659999999953,5.789332999999999],[-0.12485119999999483,1.6254540000000048],[0.021660600000004138,2.914613000000003],[0.7785240000000044,2.684381000000002],[0.9360360000000014,1.0874100000000055],[0.5290290000000084,0.27331199999999],[0.20633700000000488,0.05449600000000032],[-10.685383000000002,5.975175000000007],[-6.377932999999999,-1.0115450000000124],[-5.282898199999998,-3.0205210000000022],[-2.481170200000001,-2.2868409999999955],[-1.875862600000005,-2.187761000000009],[-1.1724141999999986,-2.2818579999999997],[-1.066274400000001,-2.921773099999996],[-1.1466209999999997,-6.629150999999993],[0,0]]}}},{"ty":"sh","ks":{"a":0,"k":{"c":true,"v":[[2.76708136,49.0682643],[6.14597895,47.7532553],[13.5861192,48.395469],[16.2193614,56.1890734],[22.4542598,67.0596576],[22.4964667,67.0596576],[21.6663975,76.1870904],[21.030949,75.8483403],[15.5041887,71.8609696],[12.0268083,65.4341277],[11.1615667,58.233336],[8.8003246,53.4978922],[2.8608745,52.0393849]],"i":[[-1.0833106700000001,0.9480298000000005],[-1.1888279500000003,0.16467020000000332],[-2.1126903000000006,-1.0138977999999952],[-0.2884139000000001,-2.3100874000000005],[-4.539587600000001,-1.2444360999999873],[0,0],[0.07045310000000171,-3.057819000000009],[0.2482842000000005,0.023666800000000876],[1.496000500000001,1.6114152999999902],[0.5064829999999994,2.5453304999999915],[0.3962760000000003,2.387717600000002],[1.5733797999999997,1.0491841999999991],[1.8500695300000003,0.9715539999999976]],"o":[[0.92620719,-0.809236300000002],[2.2791731199999994,-0.3175781999999998],[2.433931799999998,1.176215599999999],[0.5111725000000007,3.9991328999999993],[0,0],[-0.4822886000000004,3.0201224999999994],[-0.158499299999999,-0.19318470000000332],[-2.3190351999999983,-0.2752344000000022],[-1.7492418999999995,-1.8819450000000018],[-0.46896560000000065,-2.373603000000003],[-0.28606910000000063,-1.7666758000000016],[-1.8078626299999998,-1.206797200000004],[-1.40220733,-0.729253700000001]]}}},{"ty":"st","o":{"a":0,"k":0},"w":{"a":0,"k":0},"c":{"a":0,"k":[0,0,0,0]},"lc":3,"lj":1,"ml":1},{"ty":"fl","o":{"a":0,"k":100},"r":1,"c":{"a":0,"k":[0.13725490196078433,0.12156862745098039,0.12549019607843137,1]}},{"ty":"tr","o":{"a":0,"k":100},"a":{"a":0,"k":[0,0]},"s":{"a":0,"k":[100,100]},"p":{"a":0,"k":[0,0]},"r":{"a":0,"k":0}}]},{"ty":"gr","nm":"doodle-77 shape group","it":[{"ty":"sh","ks":{"a":0,"k":{"c":true,"v":[[78.6805307,87.6648243],[74.4375374,93.5050302],[73.3506622,101.563756],[77.5564974,104.170991],[80.2690405,97.9468103],[86.7136527,93.9506304],[98.5392258,82.4361334],[96.9135579,81.9810524],[86.8111928,92.0212766],[81.0261373,94.2492773],[77.9768487,99.342866],[76.8899736,102.447846],[75.0994164,101.198743],[75.0738702,98.9375595],[77.377674,91.7724042],[90.1507792,83.9720317],[100.111479,72.8320285],[99.6516472,72.0071942],[98.843458,72.4764965],[86.0703527,83.9222572]],"i":[[2.183039799999989,-1.813213300000001],[0.9184776000000028,-2.2753913999999895],[-0.5016346999999968,-2.526647600000004],[-1.9438344,1.0618549999999942],[-0.8314129999999977,1.9435750000000098],[-2.477982400000002,0.7134342000000089],[-0.9498545000000007,6.205218799999997],[0.2322383000000059,-1.0974087999999966],[4.800365200000002,-1.467162099999996],[1.7185632999999996,-1.196957800000007],[0.4760884999999888,-2.0526049000000057],[0.7988995999999986,-0.552260000000004],[0.1811459000000042,0.7750600000000105],[-0.05341479999999876,0.7347661999999957],[-1.4491668999999945,2.1497836000000063],[-4.475231600000001,2.3322900999999945],[-1.0334604000000098,5.1741758999999945],[0.35015380000000107,0.09817750000000558],[0.0961962000000085,-0.35736599999999896],[5.531915799999993,-2.3251794000000103]],"o":[[-1.8665126000000072,1.5579674999999895],[-0.9452098000000007,2.339400700000013],[0.3831931999999938,1.9103920000000016],[2.1017563999999993,-1.1495539999999949],[1.1310003999999907,-2.654639099999997],[5.557462000000001,-1.5975238999999988],[0.16488920000000462,-1.0665960999999982],[-1.019525999999999,5.252392999999998],[-1.9647357999999997,0.5996640000000042],[-1.7185632999999996,1.1969577999999927],[-0.1974025000000097,0.8556470000000047],[-0.952177000000006,0.6589189999999974],[-0.17185630000000174,-0.7229149999999862],[0.1857906999999983,-2.5859029000000078],[3.0074857000000037,-4.465482100000003],[4.3707244,-2.284885799999998],[0.09619599999999195,-0.3573660000000132],[-0.3501542999999998,-0.0981773999999973],[-2.2921917999999977,5.859167600000006],[-2.5569433999999944,1.0618556999999953]]}}},{"ty":"st","o":{"a":0,"k":0},"w":{"a":0,"k":0},"c":{"a":0,"k":[0,0,0,0]},"lc":3,"lj":1,"ml":1},{"ty":"fl","o":{"a":0,"k":100},"r":1,"c":{"a":0,"k":[0.13725490196078433,0.12156862745098039,0.12549019607843137,1]}},{"ty":"tr","o":{"a":0,"k":100},"a":{"a":0,"k":[0,0]},"s":{"a":0,"k":[100,100]},"p":{"a":0,"k":[0,0]},"r":{"a":0,"k":0}}]},{"ty":"gr","nm":"doodle-77 shape group","it":[{"ty":"sh","ks":{"a":0,"k":{"c":true,"v":[[79.3264065,55.7288136],[78.4233309,39.5509459],[79.3378378,38.700565],[75.6386574,40.4448774],[73.1900651,47.6146663]],"i":[[-3.49798890000001,-0.48822420000000477],[-3.7266156000000024,4.224399299999995],[-0.33092670000000624,0.25388330000000536],[1.058443699999998,-0.8977082000000038],[-0.11202709999999172,-2.6107383000000013]],"o":[[-4.385060600000003,-3.727006700000004],[0.2773777000000024,-0.311766200000001],[-1.3646960000000092,0.24489960000000366],[-2.0439230000000066,1.785570799999995],[0.15317989999999782,3.534467499999998]]}}},{"ty":"st","o":{"a":0,"k":0},"w":{"a":0,"k":0},"c":{"a":0,"k":[0,0,0,0]},"lc":3,"lj":1,"ml":1},{"ty":"fl","o":{"a":0,"k":100},"r":1,"c":{"a":0,"k":[1,1,1,1]}},{"ty":"tr","o":{"a":0,"k":100},"a":{"a":0,"k":[0,0]},"s":{"a":0,"k":[100,100]},"p":{"a":0,"k":[0,0]},"r":{"a":0,"k":0}}]},{"ty":"gr","nm":"doodle-77 shape group","it":[{"ty":"sh","ks":{"a":0,"k":{"c":true,"v":[[46.2162162,54.180791],[43.5662633,45.5198187],[44.4281528,39.4745763],[41.2282097,44.6339582],[42.0805755,52.3509426]],"i":[[-1.5690196999999984,-0.02790120000000229],[0.08571279999999604,2.8203381000000007],[-0.7595103000000023,2.0228310999999977],[0.4499920000000017,-2.1367607000000035],[-1.6809225000000012,-2.0205060000000046]],"o":[[-1.761873399999999,-2.443672999999997],[-0.03095180000000397,-0.9811894000000052],[-1.7356833999999992,1.2718259999999972],[-0.4999911000000026,2.394846000000001],[1.0237912999999992,1.2276491999999948]]}}},{"ty":"st","o":{"a":0,"k":0},"w":{"a":0,"k":0},"c":{"a":0,"k":[0,0,0,0]},"lc":3,"lj":1,"ml":1},{"ty":"fl","o":{"a":0,"k":100},"r":1,"c":{"a":0,"k":[1,1,1,1]}},{"ty":"tr","o":{"a":0,"k":100},"a":{"a":0,"k":[0,0]},"s":{"a":0,"k":[100,100]},"p":{"a":0,"k":[0,0]},"r":{"a":0,"k":0}}]},{"ty":"gr","nm":"doodle-77 shape group","it":[{"ty":"sh","ks":{"a":0,"k":{"c":true,"v":[[26.300739,96.5845523],[29.5467923,103.529185],[34.9451457,110.316572],[41.9982117,117.559267],[56.5502946,128.808211],[75.2825806,134.675592],[110.456373,129.099233],[109.829695,128.967803],[108.167941,128.324738],[104.83035,125.672682],[100.891899,118.397129],[99.6408897,109.804936],[99.7676337,104.930316],[104.478284,87.060619],[110.545563,50.816631],[104.224796,35.1530698],[98.8733847,28.6215009],[93.4163536,22.8127934],[92.9680556,22.3434029],[88.7291747,11.8689538],[84.7109221,7.89086922],[83.7462598,7.29239632],[83.6453341,7.35107014],[83.6453341,7.86739969],[84.368244,11.1531332],[82.8872175,12.0144648],[70.8465425,3.0960452],[72.0365273,5.15901647],[73.7475706,8.41893354],[72.2078663,9.31781636],[54.4590194,6.66106609],[56.4916168,7.67494959],[59.8432901,9.21220349],[66.809513,12.399365],[66.5935789,14.0422318],[57.6745603,21.8176855],[59.4395871,20.6911483],[61.4252423,19.5951215],[65.7533134,18.233889],[75.2098202,18.0977658],[75.0032745,19.6373666],[65.1172466,20.2194109],[60.5474231,22.1321772],[56.6887741,23.7985135],[55.7827895,22.8902428],[56.0832196,20.5292086],[39.7003908,31.6091715],[29.560875,48.4696785],[23.9770999,67.5410148],[23.9160751,87.5816424]],"i":[[-1.064682900000001,-2.9229502999999966],[-1.1641666000000015,-2.2765440000000012],[-1.8776881999999944,-2.1826659999999976],[-2.4835847999999956,-2.2815140000000014],[-5.297427599999999,-3.013486999999998],[-6.3841395999999975,-1.0185769999999934],[-10.6957807,5.9612590000000125],[0.20653799999999478,0.05436900000000833],[0.5295440000000013,0.2726759999999899],[0.9369470000000035,1.0848770000000059],[0.7792820000000091,2.6781289999999984],[0.021681700000002024,2.907824000000005],[-0.12497220000000198,1.6216679999999997],[-2.2391429999999986,5.7758500999999995],[1.4810269999999974,12.368439899999998],[3.332896000000005,4.6985990000000015],[1.9163692999999995,2.0651325000000007],[1.7180847000000057,2.0183791999999983],[0.04995479999999475,0.22794629999999927],[2.2344487999999956,3.1237937999999996],[1.5625718999999947,1.0798808099999997],[0.28165319999999383,0.014081720000000075],[-0.1596035000000029,-0.2135726800000004],[0,0],[-0.370638900000003,-1.062642799999999],[0.5609592999999933,0.6594936999999987],[4.651180800000006,1.9984324400000002],[-0.2840003000000024,-0.5374521300000001],[0,0],[0.626678499999997,0.9599035399999991],[5.924105999999995,-1.8423577300000007],[-0.6524965999999992,-0.3097977399999996],[0,0],[0,0],[0.7463809999999995,-0.11030680000000004],[0.5867775999999978,-4.4122707000000005],[-0.5914716999999996,0.38255330000000143],[-0.6883857999999989,0.3151328999999983],[-1.4924118999999934,0.27714639999999946],[-3.1366601999999943,-0.4971004000000008],[0.8566951999999901,0.009387799999998947],[3.2530947000000054,-0.8167395000000006],[1.4092123999999941,-0.8816506000000004],[1.560828199999996,0.10326590000000024],[0.008731900000000792,0.49705330000000103],[-0.1960382999999979,0.7718196000000006],[4.4266498,-4.996661899999999],[2.5278376000000016,-6.064525400000001],[1.0749765000000018,-6.547997600000002],[-1.1477369000000017,-6.611365300000003]],"o":[[0.8919017999999994,2.4244020000000006],[1.8401344000000002,2.220217000000005],[2.2148176000000035,2.5432090000000045],[4.459509199999999,4.114207999999991],[5.654188300000001,3.2223649999999964],[12.082923100000002,1.9104190000000187],[-0.2109789999999947,-0.0331950000000063],[-0.5751570000000044,-0.15482099999999832],[-1.268548999999993,-0.6676140000000004],[-1.8163479999999907,-2.116811999999996],[-0.8083919999999978,-2.793296000000012],[-0.04053100000000143,-1.6259709999999927],[0.10796700000000214,-6.2452412000000095],[4.438384999999997,-11.443740599999998],[-0.6877029999999991,-5.752380600000002],[-1.6478469999999987,-2.285107499999995],[-1.7908450000000045,-1.969093100000002],[-0.22542169999999828,-0.06038669999999868],[-0.8731250000000017,-3.696450200000001],[-1.0954928000000024,-1.5516129000000003],[-0.24879370000000733,-0.1689805799999995],[-0.23471100000000433,-0.17602143999999953],[0,0],[0.10959010000000546,1.12006971],[0.3074713999999972,0.8167395000000006],[-3.2672191999999995,-3.8666551700000014],[0.37319050000000686,0.75571871],[0,0],[0.5351410999999899,1.0185773999999999],[-3.9243681000000095,-6.04105582],[0.6008601999999996,0.44592097999999947],[0,0],[0,0],[0.6783148000000097,0.31214470000000105],[-4.267046299999997,0.6524528000000007],[0.6337197999999944,-0.2534707999999988],[0.6335186000000022,-0.4145216999999981],[1.3823620000000005,-0.6270060000000015],[3.1210503000000074,-0.5871780000000015],[0.8942490000000021,0.14081709999999958],[-3.318813700000007,-0.03755119999999934],[-1.6170973999999987,0.3850555],[-1.243968300000006,0.7909229999999994],[-0.4970625000000055,-0.010017399999998844],[0.0034993000000014263,-0.7963160000000009],[-6.377098199999999,2.0676652000000004],[-4.370319100000003,4.928600300000003],[-2.5513087,6.120852200000002],[-1.0843647999999995,6.613712199999995],[0.5218424000000006,3.066716999999997]]}}},{"ty":"sh","ks":{"a":0,"k":{"c":true,"v":[[105.964004,71.7655293],[105.46407,71.6998146],[105.712864,64.6237528],[106.0086,64.6237528]],"i":[[0.4365629999999925,-2.248380499999996],[0.009387999999987073,0.2722465000000085],[-0.2764959999999945,2.3479011999999955],[-0.030512999999999124,-0.14081720000000075]],"o":[[-0.05867700000000298,0.2933691000000067],[-0.1109130000000107,-2.3615205999999915],[0.018777000000000044,-0.15255200000000002],[0.4905459999999948,2.257768299999995]]}}},{"ty":"sh","ks":{"a":0,"k":{"c":true,"v":[[100.157254,36.0589935],[106.088401,61.1056709],[105.719905,61.0563849],[104.339804,48.2842692],[99.9976505,36.1528716],[100.03051,36.0261362],[100.157254,36.0589935]],"i":[[0,0],[1.3754069999999956,-8.683724400000003],[0.014082999999999402,0.1947971000000024],[0.9482330000000019,4.217473700000006],[2.0349444999999946,3.745736200000003],[-0.0440731999999997,0.025923699999999883],[-0.02592599999999834,-0.04407030000000134]],"o":[[4.224798000000007,7.451574299999997],[-0.03520600000000229,0.2206134999999989],[-0.2722649999999902,-4.294923099999998],[-0.9388440000000031,-4.149411999999998],[-0.0259254999999996,-0.044070299999994234],[0.044072999999997364,-0.025923699999999883],[0,0]]}}},{"ty":"sh","ks":{"a":0,"k":{"c":true,"v":[[98.7020457,72.5142072],[99.51884,72.0495106],[99.9835678,72.86625],[89.9168124,83.8969269],[77.0077066,91.6207477],[74.6793733,98.7155852],[74.7051915,100.954578],[76.5148135,102.191422],[77.613261,99.1169141],[80.6950166,94.0733131],[86.541668,91.8671777],[96.7515971,81.9254868],[98.3945742,82.3761017],[86.4430894,93.7775971],[79.9298587,97.7345591],[77.1884341,103.897656],[72.9378176,101.316009],[74.0362651,93.33637],[78.3244354,87.553479],[85.7999812,83.8288653]],"i":[[-2.3165977000000026,5.801666600000004],[-0.3538825999999915,-0.09721400000000813],[0.09722019999999532,-0.3538587999999976],[4.417261300000007,-2.2530744000000027],[3.0512431999999876,-4.421658499999992],[0.18776880000000062,-2.5605252000000007],[-0.17368609999999762,-0.7158209999999912],[-0.9623152000000061,0.6524529999999942],[-0.19950439999999503,0.8472498999999942],[-1.769721000000004,1.208680600000008],[-1.9856551999999965,0.5937789999999978],[-1.030381300000002,5.200846799999994],[0.1596035000000029,-1.056128600000008],[5.614287399999995,-1.5818459999999988],[1.1430427000000094,-2.628586900000002],[2.124134699999999,-1.1382720000000006],[0.38727319999999565,1.8939900000000023],[-0.9552738000000005,2.323482999999996],[-1.8863860999999957,1.542677800000007],[-2.591209599999999,1.0702103999999935]],"o":[[0.09722050000000593,-0.3538587999999976],[0.35388249999999744,0.09721399999999392],[-1.044464000000005,5.132785200000001],[-4.5134927999999945,2.3094013000000047],[-1.4645967000000013,2.128686000000002],[-0.05398350000000107,0.7275552999999917],[0.18307459999999764,0.7604129999999998],[0.807405899999992,-0.5468400000000031],[0.48115760000000307,-2.032460900000004],[1.7697210999999982,-1.2086804999999998],[4.851476699999992,-1.4527635999999973],[0.21593420000000663,-1.0866390000000052],[-0.9599679999999893,6.144321699999992],[-2.5043665000000033,0.7040858000000014],[-0.8402653999999927,1.9245010000000065],[-1.9645311999999961,1.0537819999999982],[-0.5069758000000064,-2.4948108999999903],[0.9282571000000104,-2.2530610999999965],[2.206283499999998,-1.795418699999999],[5.5790808,-2.2835848]]}}},{"ty":"sh","ks":{"a":0,"k":{"c":true,"v":[[93.2309319,59.0896387],[94.5406194,59.5871926],[93.8012797,62.5420059],[91.2476238,60.7958732]],"i":[[-0.9670093999999949,-0.7815352000000004],[-0.3436616999999984,-0.3480485999999985],[1.1876377000000105,-0.4107167000000018],[0.0774547000000041,1.2344969999999975]],"o":[[0.48808730000000367,-0.03206490000000173],[0.9012902999999994,0.9176585000000017],[-1.1876376999999962,0.4107167000000018],[-0.06337189999999282,-0.9716384000000033]]}}},{"ty":"sh","ks":{"a":0,"k":{"c":true,"v":[[70.6517323,45.8903777],[74.4540508,38.6148248],[83.6500283,37.4413485],[83.664111,37.4413485],[85.1639144,37.9764537],[89.4004482,44.6112885],[80.3758097,57.7847331],[70.6517323,45.8903777]],"i":[[0,0],[-2.497325200000006,1.7156222999999997],[-3.0794084999999995,-0.8566375999999991],[0,0],[-0.4750327999999939,-0.24167440000000084],[-0.34267810000000054,-2.687260600000002],[5.853692699999996,-0.7463308999999967],[-0.5140171000000038,5.691359800000001]],"o":[[0.2675705999999991,-2.9407315999999994],[2.6921352999999897,-1.8564393999999993],[0,0],[0.5207341999999926,0.11359890000000661],[2.4949780000000032,1.2626605000000026],[0.7041329999999988,5.466052499999996],[-6.642321800000005,0.8402090000000015],[0,0]]}}},{"ty":"sh","ks":{"a":0,"k":{"c":true,"v":[[62.4368468,69.1956163],[82.2933986,69.3951073],[82.9975317,69.6837824],[83.4810364,70.7047068],[77.2752771,80.7355819],[67.4760923,86.1758178],[55.5715496,85.2041795],[46.1479024,78.4825075],[41.7541122,67.6677502],[43.0051219,67.0927468],[52.8629845,68.1136712]],"i":[[-3.1897226999999972,-0.3262263999999959],[-6.6587514,0.11030669999999532],[-0.17801299999999287,-0.19911619999999175],[0.08452520000000163,-0.4100427999999994],[2.8892926000000045,-2.57226],[3.6192437999999925,-0.95990350000001],[3.781194500000005,1.5208252000000044],[2.382316799999998,3.1237938000000014],[0.48284280000000024,3.929897199999999],[-0.4482980000000012,-0.34734899999999413],[-3.2202351000000036,-0.3755124000000052]],"o":[[6.651710199999997,0.6806162000000029],[0.266565700000001,-0.016851300000013225],[0.3708012000000025,0.19443139999999914],[-0.6923974999999984,3.886553399999997],[-2.786019699999997,2.4807287999999943],[-3.9713104000000072,1.0514347999999956],[-3.6051611999999977,-1.450416699999991],[-2.3948561999999995,-3.153193899999991],[-0.07980170000000442,-0.6853102000000035],[3.260136000000003,-0.030510399999997162],[3.1967639999999946,0.3708184999999986]]}}},{"ty":"sh","ks":{"a":0,"k":{"c":true,"v":[[39.3342416,42.2924994],[50.6449654,36.7161402],[54.8063917,49.0963148],[45.7700177,56.5220726],[41.0053841,55.2007383]],"i":[[-1.6781836999999982,3.8419613000000012],[-4.126219599999999,-1.9338888999999995],[0.7322983999999977,-4.290229199999999],[4.590947400000005,0.40602279999999524],[1.3762563000000014,1.0018865000000048]],"o":[[1.642977100000003,-3.7668587999999943],[4.508798600000006,2.112257300000003],[-0.758116600000001,4.4592097999999964],[-1.6957304999999963,0.14995919999999785],[-3.7952771,-2.755322199999995]]}}},{"ty":"sh","ks":{"a":0,"k":{"c":true,"v":[[34.8982035,102.951835],[43.540263,112.501584],[48.7367649,117.042938],[54.0013329,121.032757],[53.8159112,121.351942],[48.3025495,117.779881],[43.3290231,113.405161],[34.6893107,103.144285],[34.8982035,102.944794]],"i":[[0,0],[-2.964400100000006,-3.130833999999993],[-1.8555570999999986,-1.3665200000000084],[-1.4904149000000046,-1.577151999999998],[0.18542169999999913,0.0751030000000128],[1.6993077999999997,1.2884770000000003],[1.5380581000000006,1.5890119999999968],[3.2648301999999987,3.0838949999999983],[-0.14317379999999957,-0.11734800000000689]],"o":[[3.3399377,2.7740969999999976],[1.6027388999999985,1.655771999999999],[1.7274730000000034,1.3049049999999909],[0.11970269999999772,0.1267349999999965],[-1.9997378000000054,-0.7909229999999923],[-1.7722805999999949,-1.3227660000000014],[-3.0934912000000026,-3.238794000000013],[-0.14082669999999808,-0.12438899999999364],[0,0]]}}},{"ty":"sh","ks":{"a":0,"k":{"c":true,"v":[[32.2976054,56.899932],[32.7858043,56.6253385],[34.4287814,56.8600338],[34.5367485,58.4277981],[33.2387966,59.5097432],[31.8187949,58.5216762]],"i":[[-0.4671635000000016,0.3977669000000006],[-0.1775275000000036,0.062306599999999435],[-0.3849260000000001,-0.5843911999999989],[0.15021499999999577,-0.4740843999999953],[0.6161479000000014,-0.054246300000002634],[0.1976571000000007,0.6108975000000001]],"o":[[0.14543859999999853,-0.11934970000000078],[0.5093229000000008,-0.3637775999999988],[0.2746119000000036,0.431839200000006],[-0.16425720000000155,0.5962828000000044],[-0.6415507000000034,0.026959099999999125],[-0.17621190000000198,-0.5876942000000014]]}}},{"ty":"st","o":{"a":0,"k":0},"w":{"a":0,"k":0},"c":{"a":0,"k":[0,0,0,0]},"lc":3,"lj":1,"ml":1},{"ty":"fl","o":{"a":0,"k":100},"r":1,"c":{"a":0,"k":[1,0.7725490196078432,0.796078431372549,1]}},{"ty":"tr","o":{"a":0,"k":100},"a":{"a":0,"k":[0,0]},"s":{"a":0,"k":[100,100]},"p":{"a":0,"k":[0,0]},"r":{"a":0,"k":0}}]},{"ty":"gr","nm":"doodle-77 shape group","it":[{"ty":"sh","ks":{"a":0,"k":{"c":true,"v":[[3.29907799,52.4787178],[9.29099026,53.9372671],[11.6730888,58.6728473],[12.545973,65.8738464],[16.0540685,72.3008732],[21.6296457,76.2883588],[22.270707,76.6271186],[23.1081081,67.4994231],[23.0655284,67.4994231],[16.7755581,56.6285258],[14.1190569,48.8346971],[6.61319923,48.1924649],[3.2044564,49.5075118]],"i":[[-1.4145927799999998,-0.7269220999999959],[-1.8238311699999992,-1.2068318999999974],[-0.2885957999999995,-1.7667265999999984],[-0.47783899999999946,-2.3736714000000063],[-1.7646926999999994,-1.8819989999999933],[-2.3395188000000005,-0.2752423999999962],[-0.15989930000000285,-0.19319020000000364],[-0.486548599999999,3.020209399999999],[0,0],[0.5156876999999973,4.011010599999999],[2.4554302999999997,1.1691919000000013],[2.3016701999999993,-0.3175872999999996],[0.9343882200000002,-0.8092596000000043]],"o":[[1.86641089,0.9715820999999991],[1.5872771400000012,1.049214499999998],[0.39031409999999944,2.387786399999996],[0.5109566000000001,2.5454036999999943],[1.5092144000000012,1.6114618000000007],[0.25047719999999885,0.02366750000000195],[0.07107539999999801,-3.057907],[0,0],[-4.579685000000001,-1.2444719000000077],[-0.29569250000000125,-2.310153800000002],[-2.1289858000000006,-1.0139270000000025],[-1.1993286699999999,0.1646749000000014],[-1.0928793700000003,0.9504094999999992]]}}},{"ty":"st","o":{"a":0,"k":0},"w":{"a":0,"k":0},"c":{"a":0,"k":[0,0,0,0]},"lc":3,"lj":1,"ml":1},{"ty":"fl","o":{"a":0,"k":100},"r":1,"c":{"a":0,"k":[1,0.7725490196078432,0.796078431372549,1]}},{"ty":"tr","o":{"a":0,"k":100},"a":{"a":0,"k":[0,0]},"s":{"a":0,"k":[100,100]},"p":{"a":0,"k":[0,0]},"r":{"a":0,"k":0}}]}],"op":74},{"ty":4,"nm":"Boo!","ip":0,"st":0,"ind":2,"hix":4,"ks":{"o":{"a":0,"k":100},"or":{"a":0,"k":[0,0,0]},"a":{"a":0,"k":[31,14,0]},"p":{"s":true,"x":{"a":0,"k":179},"y":{"a":0,"k":140}},"rx":{"a":0,"k":0},"ry":{"a":0,"k":0},"rz":{"a":0,"k":0},"s":{"a":0,"k":[100,100,100]}},"shapes":[{"ty":"gr","nm":"Boo! shape group","it":[{"ty":"sh","ks":{"a":0,"k":{"c":true,"v":[[3.39726027,27.454039],[4.8256538,26.2451253],[8.91780822,26.7520891],[18.4919054,21.9554318],[19.109589,19.5766017],[15.3262765,15.0139276],[17.4881694,11.7381616],[18.2988792,7.87743733],[16.6002491,2.37883008],[11.5043587,0],[4.74844334,3.62674095],[4.74844334,3.62674095],[5.05728518,1.8718663],[5.05728518,1.8718663],[4.28518057,1.01392758],[3.12702366,0.77994429],[1.83374844,1.42339833],[1.15815691,2.6908078],[1.15815691,2.6908078],[1.15815691,14.6239554],[0.424657534,15.9108635],[1.23536737,17.0807799],[1.23536737,17.0807799],[1.23489076,17.5598198],[1.19676214,19.6935933],[1.15815691,21.994429],[1.15815691,21.994429],[1.15815691,22.0724234],[0,23.4373259],[0.463262765,24.4122563],[1.42839352,24.9192201],[1.54420922,25.3481894],[1.54420922,25.3481894],[1.54420922,25.8941504]],"i":[[-1.23536737,0],[-0.2831050200000007,0.8059424999999969],[-1.1838937299999994,0],[-1.8530511000000018,3.1977715000000018],[0,0.8579386999999983],[2.522208300000001,0.8059423999999993],[-0.5404732999999986,1.3779015000000001],[0,1.2739090000000006],[1.132420100000001,1.42989787],[2.1618929000000016,0],[1.7758406000000004,-2.4178273],[0,0],[0,0],[0,0],[0,0],[0.56621005,0],[0.4503943600000002,-0.42896936099999994],[0,-0.4159702900000002],[0,0],[0,0],[0,-0.49396469999999937],[-0.5404732230000001,-0.3379757999999988],[0,0],[0,0],[0.022877180000000052,-0.8550499999999985],[0,-0.49396469999999937],[0,0],[0,0],[0,-0.8059424000000028],[-0.30884184300000006,-0.18198699999999945],[-0.33457866,-0.15598890000000054],[0,-0.23398329999999845],[0,0],[0,0]],"o":[[0.6691573300000004,0],[1.54420921,0.3379759],[4.52968038,0],[0.4117891,-0.7279479999999978],[0,-2.2358402999999996],[0.9007886999999979,-0.8059425000000005],[0.540473200000001,-1.2999071999999998],[0,-2.2358403000000004],[-1.2353673999999994,-1.5858867190000003],[-2.72810299,0],[0,0],[0,0],[0,0],[0,0],[-0.20589455999999995,-0.1559888610000001],[-0.4117891199999999,0],[-0.45039434999999983,0.42896935999999997],[0,0],[0,0],[-0.488999583,0.3639740000000007],[0,0.44196840000000215],[0,0],[0,0],[-0.002541899999999986,0.567465600000002],[-0.025736819999999883,1.0399257000000013],[0,0],[0,0],[-0.772104606,0.10399259999999799],[0,0.46796660000000045],[0.308841843,0.18198699999999945],[0.07721047000000003,0.05199619999999783],[0,0],[0,0],[0,1.0399256999999977]]}}},{"ty":"sh","ks":{"a":0,"k":{"c":true,"v":[[6.87173101,14.3509749],[4.78704857,14.3509749],[4.78704857,11.8551532],[6.75591532,6.23955432],[11.3499377,2.92479109],[14.7858032,7.72144847],[12.6625156,13.1420613],[6.87173101,14.3509749]],"i":[[0,0],[0,0],[0,0],[-1.3125778399999994,2.00185701],[-1.6471564599999997,0],[0,-3.1977715900000003],[1.4155251,-1.0139276000000006],[2.702366129999999,0]],"o":[[0,0],[0,0],[0,-1.7418756000000002],[1.4155251100000008,-2.20984216],[2.2905770000000008,0],[0,2.599814329999999],[-1.1581569000000016,0.8059423999999993],[0,0]]}}},{"ty":"sh","ks":{"a":0,"k":{"c":true,"v":[[8.84059776,23.7493036],[4.67123288,22.9693593],[4.63262765,21.5654596],[4.63262765,21.5654596],[4.63262765,19.1476323],[4.67123288,17.275766],[6.75591532,17.1977716],[11.8518057,17.3537604],[15.5965131,19.3426184],[13.0871731,22.5793872]],"i":[[1.3897883400000008,0],[1.2611041900000002,0.5199628999999995],[0,0.5459609999999984],[0,0],[0,0],[-0.02573681999999966,0.6759516999999988],[-0.8493150699999994,0],[-1.0294728000000006,-0.10399250000000038],[0,-1.0139275999999988],[1.6728933000000001,-0.8839368999999984]],"o":[[-1.5184723999999994,0],[-0.02573681999999966,-0.3899721000000014],[0,0],[0,0],[0,-0.5719591000000008],[0.54047322,-0.05199630000000255],[2.3677874600000006,0],[2.4964715999999996,0.3119778000000011],[0,1.2739089999999997],[-1.4412618999999989,0.7799443000000004]]}}},{"ty":"sh","ks":{"a":0,"k":{"c":true,"v":[[28.49066,28],[33.8181818,25.1532033],[35.5554172,19.1476323],[31.2316314,10.6072423],[28.7222914,9.71030641],[23.5105853,13.4150418],[21.7733499,20.0445682],[23.3561644,25.6601671]],"i":[[-2.2648401999999983,0],[-1.3383145999999968,1.8978644999999972],[0,2.3398328999999976],[2.882523899999999,1.7418756000000002],[0.669157300000002,0],[1.3383147000000015,-2.4698236],[0,-2.3398328],[-1.0552096000000013,-1.3779015000000001]],"o":[[2.2133666000000005,0],[1.1581569000000016,-1.6638811000000011],[0,-3.9517177000000014],[-1.003736,-0.5979571999999997],[-2.136156100000001,0],[-1.158156899999998,2.079851400000001],[0,2.365831100000001],[1.158156899999998,1.5598886000000007]]}}},{"ty":"sh","ks":{"a":0,"k":{"c":true,"v":[[28.49066,25.1532033],[25.4408468,19.9665738],[26.2129514,15.637883],[29.3013699,13.1030641],[32.1581569,19.0696379],[31.4246575,23.0083565]],"i":[[1.3125779000000009,0],[0,3.4577530000000003],[-0.5147364000000003,1.273908999999998],[-1.3640515000000022,0],[0,-3.9777158999999997],[0.4889996000000032,-1.0919220000000003]],"o":[[-2.033208799999997,0],[0,-1.6118847999999986],[0.6948942000000002,-1.6898793000000012],[1.9045246999999996,0],[0,1.5338904000000007],[-0.6434204999999977,1.4298979000000003]]}}},{"ty":"sh","ks":{"a":0,"k":{"c":true,"v":[[44.5118306,28],[49.8393524,25.1532033],[51.5765878,19.1476323],[47.252802,10.6072423],[44.743462,9.71030641],[39.5317559,13.4150418],[37.7945205,20.0445682],[39.377335,25.6601671]],"i":[[-2.2648401000000007,0],[-1.338314600000004,1.8978644999999972],[0,2.3398328999999976],[2.8825238999999954,1.7418756000000002],[0.669157300000002,0],[1.338314699999998,-2.4698236],[0,-2.3398328],[-1.0552096000000049,-1.3779015000000001]],"o":[[2.2133665999999934,0],[1.1581568999999945,-1.6638811000000011],[0,-3.9517177000000014],[-1.0037360000000035,-0.5979571999999997],[-2.136156100000001,0],[-1.1581569000000016,2.079851400000001],[0,2.365831100000001],[1.1581568999999945,1.5598886000000007]]}}},{"ty":"sh","ks":{"a":0,"k":{"c":true,"v":[[44.5118306,25.1532033],[41.4620174,19.9665738],[42.234122,15.637883],[45.3225405,13.1030641],[48.1793275,19.0696379],[47.4458281,23.0083565]],"i":[[1.3125778999999937,0],[0,3.4577530000000003],[-0.5147363999999968,1.273908999999998],[-1.3640515000000022,0],[0,-3.9777158999999997],[0.48899959999999965,-1.0919220000000003]],"o":[[-2.033208800000004,0],[0,-1.6118847999999986],[0.6948942000000002,-1.6898793000000012],[1.904524699999996,0],[0,1.5338904000000007],[-0.6434204999999977,1.4298979000000003]]}}},{"ty":"sh","ks":{"a":0,"k":{"c":true,"v":[[58.1008717,20.0445682],[59.0273973,19.9275766],[59.7995019,19.0696379],[59.3748443,16.3788301],[59.4713574,15.5013928],[59.5678705,14.7409471],[60.1469489,8.8913649],[61.4595268,3.2367688],[61.8069738,2.6908078],[62,2.10584958],[61.0734745,0.857938719],[59.4520548,0.467966574],[57.0971357,1.28690808],[57.0199253,1.94986072],[57.2708593,4.07520891],[57.5217933,6.2005571],[56.8075965,11.5236769],[56.0933998,16.8467967],[56.6724782,19.6545961]],"i":[[-0.5147363999999968,0],[-0.2831051000000002,0.07799440000000146],[-0.15442099999999925,0.20798509999999837],[0,0.6759517000000024],[-0.06434200000000345,0.37697299999999956],[0,0.12999070000000046],[-0.12868410000000097,0.8059424400000008],[-0.5919468999999964,1.4818941499999996],[-0.1801577000000023,0.28597956999999985],[0,0.1819869999999999],[0.6176836999999935,0.337975861],[0.540473200000001,0],[0.6434204999999977,-0.5459610049999999],[0,-0.25998143000000007],[-0.16728940000000136,-0.9489322199999997],[0,-0.46796656999999975],[0.47613119999999753,-2.3528319599999996],[0,-1.1959145999999983],[-0.3860523000000029,-0.7279479999999978]],"o":[[0.33457870000000156,0],[0.3603154000000046,-0.3639739999999989],[-0.2831051000000002,-1.1179202000000004],[0,-0.20798519999999954],[0.06434209999999752,-0.37697309999999895],[0.25736820000000193,-3.0937789999999996],[0.2831051000000002,-2.2878365799999996],[0.05147360000000134,-0.07799442999999995],[0.12868410000000097,-0.2079851399999999],[0,-0.4939647100000002],[-0.5404733000000022,-0.25998142999999996],[-0.9265254999999968,0],[-0.05147360000000134,0.18198700000000012],[0,0.4679665799999999],[0.1672893000000002,0.9489322200000005],[0,1.1959145800000002],[-0.47613120000000464,2.3528319],[0,1.1439182000000017],[0.4375259999999983,0.2599814000000009]]}}},{"ty":"sh","ks":{"a":0,"k":{"c":true,"v":[[57.5217933,27.2590529],[60.8804483,24.2952646],[59.49066,23.0083565],[57.4445828,22.6183844],[54.7036115,24.8802228],[55.1668742,26.5181058]],"i":[[-0.4117891,0],[0,1.9758589000000022],[0.9265256000000051,0.3379759],[0.669157300000002,0],[0,-1.5078922999999982],[-0.3088418000000033,-0.5719591000000008]],"o":[[2.2391033000000036,0],[0,-0.5199627999999983],[-0.6948940999999991,-0.2599814000000009],[-1.8273141999999964,0],[0,0.519962900000003],[1.1581568999999945,0.49396480000000054]]}}},{"ty":"st","o":{"a":0,"k":0},"w":{"a":0,"k":0},"c":{"a":0,"k":[0,0,0,0]},"lc":3,"lj":1,"ml":1},{"ty":"fl","o":{"a":0,"k":100},"r":1,"c":{"a":0,"k":[0.06666666666666667,0.07450980392156863,0.07058823529411765,1]}},{"ty":"tr","o":{"a":0,"k":100},"a":{"a":0,"k":[0,0]},"s":{"a":0,"k":[100,100]},"p":{"a":0,"k":[0,0]},"r":{"a":0,"k":0}}]}],"op":74},{"ty":4,"nm":"Oval Copy","ip":0,"st":0,"ind":1,"hix":3,"ks":{"o":{"a":0,"k":100},"or":{"a":0,"k":[0,0,0]},"a":{"a":0,"k":[149.5,127,0]},"p":{"s":true,"x":{"a":0,"k":262.5},"y":{"a":0,"k":200}},"rx":{"a":0,"k":0},"ry":{"a":0,"k":0},"rz":{"a":0,"k":0},"s":{"a":0,"k":[100,100,100]}},"shapes":[{"ty":"gr","nm":"Oval Copy shape group","it":[{"ty":"sh","ks":{"a":0,"k":{"c":true,"v":[[133.406835,254],[241.620359,225.752793],[299,137.375459],[219.387222,73.2331708],[149.5,0],[45.871218,66.6643594],[0,137.375459]],"i":[[-42.3661506,0],[-26.740325000000013,23.056251000000003],[0,39.51652099999998],[38.45271700000001,24.85791970000001],[31.97926000000001,0],[27.412819299999995,-30.930457799999992],[0,-32.870524]],"o":[[39.56238300000001,0],[29.066647999999986,-25.062072999999998],[0,-46.48464840000001],[-24.308257999999995,-15.714175599999997],[-46.794945,0],[-20.9552785,23.644279400000002],[0,36.94014199999998]]}}},{"ty":"st","o":{"a":0,"k":0},"w":{"a":0,"k":0},"c":{"a":0,"k":[0,0,0,0]},"lc":3,"lj":1,"ml":1},{"ty":"fl","o":{"a":0,"k":100},"r":2,"c":{"a":0,"k":[0.9686274509803922,0.9686274509803922,0.9686274509803922,1]}},{"ty":"tr","o":{"a":0,"k":100},"a":{"a":0,"k":[0,0]},"s":{"a":0,"k":[100,100]},"p":{"a":0,"k":[0,0]},"r":{"a":0,"k":0}}]}],"op":74}],"op":74,"w":550,"h":400}